100 64
66 0.3106974 -0.10532913 0.13703427 0.515439 0.22770129 0.0644382 -0.07888039 0.2333963 -0.03950591 0.20980321 0.3058165 -0.27540973 0.29317153 0.26314718 0.6749136 -0.4177781 -0.2728944 -0.53620225 -0.16959153 -0.15072636 -0.20449802 -0.17715591 -0.76292634 -0.7555059 -0.7393896 -0.44789234 0.09679078 0.28392473 0.02177441 -0.18395443 -0.43561885 -0.37025076 -0.060662758 0.20388778 -0.00033535188 -0.18285094 0.12816688 0.19974014 -0.28268784 -0.0050285193 0.49450892 -0.24257737 0.5017587 0.030346463 -0.16763821 -0.21908815 0.07607539 -0.58032465 -0.064400256 0.32362413 -0.2561438 0.30869344 0.062337574 0.4104356 0.5016698 0.15696532 0.41897824 -0.2039735 0.120627284 0.1410154 0.20749189 0.06799745 0.28895506 0.2898097
49 -0.13837335 -0.074223764 -0.30766734 -0.028483562 0.05428365 0.23057084 0.24376419 0.17719989 -0.47735423 0.20279106 0.5367479 -0.10293804 0.17136352 -0.011765912 0.786559 -0.33120123 -0.013431378 -0.22351229 0.40267673 -0.19926244 0.13882703 0.026829137 -0.5669647 0.16006033 -0.038447563 0.049424645 0.2858666 -0.2152324 -0.21734682 0.30623487 -0.32059675 -0.45294532 0.17423259 0.03689819 -0.058720715 0.25817102 0.012909523 0.23479092 -0.34098917 -0.116762236 -0.20282088 0.14321099 0.18036778 0.018098552 -0.44489706 -0.20210199 0.06419052 -0.40602756 0.46074295 0.59447265 0.56531847 -0.20066379 0.39913213 -0.054601364 -0.17089018 0.19092825 -0.2765339 -0.1679344 -0.03152799 0.3620989 0.2767556 0.10157578 -0.17540814 0.31558
45 -0.04422605 0.23020276 -0.07278805 -0.3710195 -0.46921355 0.12593883 0.17766038 0.3799009 -0.6585949 -0.18238382 0.20625392 0.03580713 -0.14483716 -0.4706222 0.043374915 0.10424752 -0.05350875 -0.047872264 0.16982052 -0.16270837 0.36503553 0.09618434 0.028156657 -0.20715149 -0.17573778 -0.17202261 0.054563 -0.39853835 0.27061832 -0.0017909678 -0.01992934 -0.43972108 -0.21357928 -0.47967252 -0.09810736 0.18504387 -0.19209403 0.17916887 -0.11000874 0.62534153 -0.03373847 -0.075765505 0.49103314 -0.16595821 -0.25808454 -0.077373125 0.015936857 0.8033362 0.38744396 0.5871319 -0.14229439 0.1963245 -0.14287682 0.08532487 0.25071958 0.12872355 -0.15947478 0.22376043 0.56612754 -0.06368943 0.2608998 0.13371156 -0.15308449 0.30404782
84 -0.4642699 -0.59026617 -0.04121485 0.43278947 -0.1955876 -0.0413598 -0.20453563 -0.100789025 0.15106685 0.012186288 0.2368837 0.12285744 -0.23450142 -0.32360694 0.49152747 -0.14908527 0.028666561 0.09917887 0.18299171 0.5315923 -0.26451725 -0.37376705 0.38457862 -0.5193876 -0.57782173 -0.43680188 -0.053650733 0.1430605 0.14749148 0.2720803 0.22921021 0.1629912 0.21424887 -0.38635272 -0.44953638 0.022077307 -0.2640958 0.38314712 -0.2708741 -0.37273964 0.556549 -0.13277835 0.021826075 -0.29258364 -0.1635529 0.005945008 -0.34998038 0.24131534 -0.1600217 -0.16665237 -0.016612709 -0.17247799 -0.40173525 -0.18526062 0.20457858 -0.5623077 0.15178648 -0.106090225 -0.29351878 0.6166554 0.15326285 0.6176452 0.42580348 -0.36161327
10 0.33450642 0.59951603 -0.06394254 0.07745294 1.0869817 0.22241098 0.016480852 -0.054667022 -0.21893151 0.2497619 0.211239 -0.9198936 -0.060539044 0.43882567 -0.4085226 0.21351439 -0.042311084 -0.7045613 -0.15622027 -0.45895743 0.15984991 0.1087179 -0.2822477 -0.06424619 0.124812186 0.34862384 -0.3911708 -0.32370457 0.2347109 -0.18661995 -0.25718823 -0.42009866 0.030653676 0.1786387 -0.17956546 -0.63389814 -0.069267996 -0.4916276 -0.21880145 -0.26424956 0.0032304514 -0.21718328 -0.045002524 -0.023680989 0.16733527 0.23136313 -0.34121475 0.23951322 0.6790707 -0.2973916 -0.26475713 -0.020987632 0.10187396 0.25247115 0.4643558 -0.050867762 0.10260818 -0.010079051 0.38975945 0.5035726 -0.12219207 0.06130288 0.01039917 -0.101386845
94 0.17088623 0.23541254 -0.067166835 0.81538457 -0.11133651 -0.08962334 0.077793814 0.3537255 -0.6825264 0.33294126 0.23147376 -0.24509062 0.22986442 0.15432127 -0.54009813 0.42993286 -0.028112508 0.041780207 -0.012430178 -0.5771657 0.5510125 -0.16282853 -0.30129835 -0.28954515 0.10093383 -0.16515476 0.6180797 -0.14538549 -0.20751415 -0.15492947 -0.6502226 -0.6544674 0.28780213 0.0018192836 -0.37443852 0.01708792 0.02118312 -0.42583117 -0.16203572 -0.035095345 -0.0036117025 -0.16103917 -0.39559758 0.3978695 0.09531879 0.39393777 0.44716847 -0.15097462 -0.2779556 0.17556147 -0.58025014 0.25104 -0.1692743 0.04046434 0.17885683 -0.11261644 -0.04547393 -0.39926583 0.40308625 0.24265826 0.03653262 -0.14209212 -0.016237514 0.034999542
88 0.1469184 -0.165315 -0.42320454 0.29557255 -0.17759421 0.0067602526 -0.14266331 -0.48865625 0.3950732 -0.4463305 0.047576196 0.12625973 0.18578845 -0.122061014 -0.041142996 0.1251218 -0.5769698 0.95271385 -0.61661553 -0.0046756878 0.09479474 0.013087098 -0.18715781 0.23355816 0.6469336 -0.0983665 0.060026564 0.13329245 -0.019238649 0.50889444 -0.22666658 0.10499716 -0.24713852 -0.19000144 -0.6417949 -0.4059095 -0.20237342 -0.2165146 0.16868927 0.31744695 0.55332273 0.24178003 0.17998698 -0.17140959 0.117328614 -0.23427345 -0.2807258 0.4693649 0.32722428 0.43017367 0.19694796 0.22770202 0.6169533 -0.14916013 0.027054848 -0.2973714 0.07028606 -0.29234862 0.5510155 0.81000316 0.4313468 -0.6221521 -0.008884407 -0.13065381
2 0.21972369 -0.42168912 0.17794397 0.5783035 0.1285678 -0.07045613 -0.18160754 0.25142637 0.3765306 -0.012648432 0.14532578 -0.10207203 0.24483971 0.2392917 0.5419894 0.2334597 -0.1098241 0.07913717 0.62929475 0.1895978 -0.22712207 0.33488527 0.18459561 -0.63588125 -0.49610904 0.24234653 0.50095344 -0.1617035 -0.17381603 -0.07443045 -0.105973765 -0.7765897 -0.16260488 0.002947249 -0.013168933 -0.21034351 0.7083735 0.27913857 0.14926161 -0.4088755 0.0729627 0.4140737 -0.084744684 0.2854997 -0.17002857 -0.1741405 -0.22001575 -0.04822335 -0.17054574 -0.16404079 -0.6504557 0.46944618 0.42703447 0.048078388 0.5684007 -0.04594937 0.061034366 0.020575363 -0.2755374 -0.0066706976 0.05796523 0.22923619 -0.1283959 0.18257898
90 -0.024592208 -0.09724781 -0.14645925 0.56291413 -0.023426322 -0.110351026 -0.40702072 -0.2111529 0.094315976 0.5813843 0.31030005 -0.58153176 0.7812541 0.11886027 0.4979226 0.55447066 -0.0045905528 0.19617987 -0.09139277 -0.6141526 -0.05426983 0.3431854 -0.07895381 -0.37863457 -0.2591466 -0.6171416 -0.13530743 0.11342765 0.24375324 -0.0145067535 -0.43848482 -0.505173 -0.23852631 -0.19651139 -0.16956258 -0.31946728 -0.7816419 0.18274397 -0.5744275 0.28551266 -0.003701572 0.033225846 0.09033347 -0.100366935 -0.017892871 0.5258392 -0.3400368 -0.038077764 -0.4396832 0.0071346904 -0.09259341 -0.17824276 0.19338837 -0.8139641 -0.4498437 0.6208314 0.37701106 0.28447068 0.35335997 0.16137613 0.5471673 -0.2771042 0.031113235 -0.14671557
55 0.031143766 -0.33543953 -0.21920085 0.39499918 -0.7739554 0.30494177 0.15070766 -0.27017215 -0.48586932 -0.32097188 -0.10300486 0.42862013 0.40328854 -0.3234368 -0.30622628 0.18635085 0.17712076 0.5069224 0.22807416 -0.31907254 -0.73856413 -0.19355375 -0.47663942 -0.58484614 -0.3818549 0.34096214 -0.12857082 -0.3483095 0.45370287 0.20572956 0.37886122 0.18492964 -0.6259771 -0.15014894 -0.28755456 -0.0005493272 -0.40721107 -0.11832123 -0.27939206 -0.03348742 0.45245904 0.12106773 -0.058559008 0.3028564 0.00378632 -0.26107538 -0.11851986 0.67568666 0.39778158 0.17711814 0.32093567 0.61971706 0.19558254 0.40665948 -0.027213436 -0.5179389 -0.25113818 0.072301894 -0.3191341 0.20021574 -0.3856711 0.7016654 0.63943297 0.58820367
35 -0.1148547 0.31331953 -0.14154933 0.27004907 -0.076675504 0.025816176 -0.30313134 -0.29770717 -0.13047494 0.0855451 -0.29013234 -0.18415618 -0.31521258 -0.002338507 0.3864359 0.8958651 -0.07772783 0.18246917 0.4124371 0.5189539 0.24681316 -0.2673248 0.6262268 -0.78864044 -0.08809396 -0.14139748 0.7345124 0.039892565 -0.38217235 0.2773197 -0.08013856 -0.06383527 0.19856356 -0.07089126 0.09728005 0.20398588 0.69211143 0.25377005 -0.23741062 0.65212756 0.11059454 0.3545762 0.64268273 -0.10784947 0.22162777 -0.08110807 -0.07836005 0.35139734 -0.19590923 0.05860151 -0.1671997 0.19880615 0.2549625 0.02862053 0.28917995 0.27464187 -0.026703326 -0.17737232 0.266844 -0.53822595 -0.2452338 0.030585025 -0.7527145 -0.050642353
97 -0.21282059 -0.33740637 0.001819839 0.2826402 0.5313031 0.25168952 -0.2595691 -0.09438998 0.22414674 0.04741947 -0.3020783 -0.11328808 0.1911845 0.6098905 0.22657493 0.13273427 0.25523892 0.25235504 0.40305167 -0.03631864 -0.27059194 -0.10809665 -0.033153526 -0.30598155 -0.04974585 0.5280031 0.015111693 -0.5106227 0.7138934 0.63750327 -0.108908154 0.47706613 -0.1641113 -0.16528231 -0.004105861 -0.06389922 0.4071684 0.010485889 0.0097199 -0.12126903 0.14491865 -0.1003238 -0.30753878 -0.01555106 0.22936772 0.12859963 -0.17267379 0.38907066 0.27463707 0.21437974 0.46643874 0.49622053 0.3696502 -0.2671162 -0.22760792 0.25849116 -0.3175657 -0.11573034 -0.080870114 0.6027902 -0.062820196 -0.14788263 0.04333633 0.4245384
44 -0.18706287 0.33447886 0.26324376 0.10032104 0.42068103 0.19342677 0.045599014 -0.5020143 0.19144188 0.45002985 0.4532021 -0.7150299 0.3971199 0.31083643 -0.5068063 0.25760356 0.42342746 -0.8310743 -0.24384005 -0.049841784 -0.33440703 -0.1235701 0.066760205 -0.27122882 0.26774162 0.044775106 -0.31684697 -0.62140936 0.33434537 0.011242271 0.45273107 -0.16820419 0.20409833 0.42445847 -0.057925176 -0.35320428 0.057533387 -0.018458944 -0.9996612 0.08979737 0.22312416 -0.71457666 0.18334997 -0.40870053 -0.27230927 0.047095634 -0.2810062 0.23288387 -0.1026141 -0.50655955 0.416816 -0.08837929 0.2741219 0.6033098 0.07193455 -0.23804635 -0.080862656 0.11644038 -0.43598643 0.16647218 -0.101433545 -0.70886755 0.12837581 0.3909564
52 -0.09291215 0.09039736 0.07567694 -0.16984169 -0.24051861 0.32180375 -0.13105136 0.4925675 -0.07392695 0.21129498 0.122097656 0.15883374 0.4210114 0.19227421 -0.1334567 0.13002677 -0.14979677 -0.47400463 -0.0058445837 -0.2646577 0.04450464 0.33164358 -0.37689927 -0.26254448 0.16601855 0.5164859 0.18778057 0.55179596 -0.28204533 -0.040097717 -0.57274 -0.7252448 0.29514545 -0.2760213 -0.2792231 -0.5276922 0.3310336 -0.106881134 -1.01092 -0.38425902 -0.033572633 0.1572369 -0.3321129 -0.14588858 -0.01845436 -0.17693648 -0.8882827 -0.0033517051 -0.11351869 -0.46357465 -0.14628173 -0.17269325 0.1337031 0.25231114 0.23515083 0.03776144 -0.15703908 -0.45013884 -0.108661085 0.19346109 0.17076515 -0.025296595 0.33166155 0.07741963
77 0.11617866 0.50672686 -0.23012139 0.049919445 0.045807175 0.2017209 0.41550055 0.22934732 -0.38817856 0.18987052 0.020866938 0.20618983 0.42195258 0.20284604 -0.21212988 0.109826416 0.54324436 -0.58108944 -0.2131867 0.16461883 0.8446739 0.054529548 -0.05763943 -0.52737606 0.39097705 0.056253705 0.49537492 -0.7142838 -0.10366053 -0.33561486 0.10378673 -0.91270584 -0.021746553 -0.28836834 -0.093600325 0.17488389 -0.35390207 -0.024811435 -0.29097027 0.047709554 -0.18689448 -0.09046239 -0.51782596 0.22453895 0.39288327 0.12917803 -0.3122107 0.14908075 -0.32067353 -0.39159364 -0.36372527 0.12481703 -0.10144517 0.46394208 0.50929403 -0.007477228 -0.26294982 -0.26574773 0.18763295 -0.08805544 0.060560428 -0.40185738 -0.05664894 -0.4140329
20 -0.102397926 0.18530488 0.41947058 -0.1883368 0.4737331 -0.4654118 -0.77321464 0.0687672 0.58521706 0.3652976 0.39076763 -0.4206186 -0.41397336 0.37205237 0.1714192 0.3366592 0.055071145 -0.17904587 0.093341164 -0.38336468 0.24158181 0.44629794 0.6351372 0.5617667 -0.07102209 -0.12539396 -0.28373805 0.06301507 -0.5964666 -0.38988554 -0.41551527 0.15624762 0.18695045 -0.2627362 -0.31908768 -0.3402469 0.16824082 0.027713347 -0.50104994 -0.046664305 -0.4626226 -0.49488932 -0.14685923 -0.5098269 0.17406201 -0.46364722 -0.37707737 0.3027351 -0.12441135 -0.32482266 -0.24387749 0.44834724 0.33936965 0.68866557 0.07366715 -0.28832102 -0.10541041 0.34252867 0.40386721 0.50263995 0.07324074 -0.7445053 0.45390671 0.4950456
57 0.086538136 0.45152768 -0.6396331 0.2766459 -0.07170449 -0.08591806 -0.2961206 -0.50889325 -0.113653265 0.06733158 -0.31695327 0.09657116 -0.20955114 0.38785726 0.13279337 0.34174812 -0.27745426 0.31507835 -0.42575133 0.1802225 0.48947337 -0.1545517 0.06056727 -0.6056519 1.126577 -0.30747676 0.55194396 -0.1591964 -0.06643723 0.44000155 -0.18781906 -0.05362235 -0.14022915 -0.5619285 -0.039073866 -0.42080486 0.3910954 -0.18215303 -0.11757088 0.5268616 -0.47175086 -0.5097258 -0.13969094 0.19403991 0.2102625 -0.1800179 -0.09333368 -0.050952576 -0.103063636 -0.32905173 -0.44629997 0.15485403 0.18691762 0.2351135 -0.14137098 0.017782928 -0.3925774 -0.023834713 0.56810504 0.6851713 0.10903268 -0.5576673 0.14492115 0.021299059
82 0.59438485 0.04303024 0.10550808 0.4838837 0.22597496 0.19814084 0.09060821 0.430696 -0.29397947 0.8823177 -0.25684586 -0.27098405 0.28954905 0.2833434 0.21856233 0.47799277 0.6385606 0.25560838 0.64584386 -0.5487561 0.25460342 0.12346615 0.11649899 -0.42664638 -0.08456126 0.57806706 0.5482391 -0.47960186 0.27336106 0.08205252 -0.45679894 -0.4454479 -0.04744291 -0.33233416 0.039840214 0.002452387 -0.2896819 -0.049738225 0.43799222 0.39980647 0.18149665 -0.040683106 0.22118953 0.14114943 -0.059340835 0.30546805 0.33093745 0.2673871 0.08259783 0.62584597 -0.10770361 0.28700185 0.15230177 -0.6894601 0.16756134 0.44481522 -0.40637338 -0.073254175 0.11695948 0.27818793 -0.057650324 0.20307465 -0.33682656 -0.28793922
91 0.27923778 -0.20903869 -0.053510353 -0.108693436 -0.346513 -0.3610545 0.5362282 0.31767902 -0.2711321 0.45413002 -0.28128594 -0.061522663 0.010788592 0.5112295 0.29622942 -0.4849481 0.003383081 0.25631994 -0.18639012 -0.017730374 0.4562333 -0.07348204 0.04517739 -0.3619919 -0.1814805 -0.17366722 0.3599388 -0.61223394 -0.2757257 0.08690523 0.031309273 -0.04109757 -0.9541278 -0.29578933 -0.39677995 0.31673732 -0.29404154 0.12887053 0.5956962 0.4474665 0.13235693 -0.14340702 -0.059368692 0.6893017 -0.22394307 -0.40415433 0.29124033 0.3893156 0.36233768 0.2407921 0.05144714 -0.061525147 -0.3090593 0.7694186 0.43811098 -0.16572675 -0.68677837 0.025499927 0.3384774 0.11754763 -0.34542695 0.082907096 0.7879289 -0.08122555
37 0.039851286 -0.62606925 -0.6437569 0.44980568 -0.30964246 -0.07112738 0.0752176 -0.1556013 -0.05520953 0.12963279 0.030832902 -0.05977077 -0.57736915 0.08919421 0.0059354845 0.34684345 -0.20474128 0.33421975 0.096915655 0.39744195 0.44692868 -0.88306695 0.66656 0.02512419 0.12396991 -0.3068725 0.4006162 0.09843262 -0.009378722 0.3348622 -0.25055444 -0.43792552 0.4811568 -0.043936957 -0.57376 -0.49138474 0.14107881 0.39972436 -0.2871596 0.16426224 -0.04129223 -0.093168266 -0.0917582 -0.36499316 -0.18069442 0.730888 -0.2305655 -0.24064289 -0.09956296 -0.81545764 0.028646797 -0.18946828 -0.10941477 0.32629862 -0.7143888 -0.09170866 -0.13035057 -0.24751665 -0.18274938 0.014848425 -0.10404162 -0.26536867 0.14732759 -0.0047283974
53 -0.50478125 -0.30356 0.10976589 0.19420601 -0.30005762 0.34443954 -0.7476666 -0.07051965 -0.21319734 -0.23313387 0.44590202 0.04468144 0.061777074 0.13127808 0.588385 -0.49789315 -0.14467329 -0.20186815 -0.039253484 -0.006673099 -0.2395265 -0.6258717 -0.054511134 -0.017384814 -0.6771896 0.029144153 0.14558296 0.27750355 -0.18503514 0.19858402 -0.14695618 0.011521258 0.61124533 -0.05447257 -0.2648849 -0.14319405 0.11068937 0.77918684 -0.6890991 -0.26688495 0.16584797 0.24746159 0.039440613 0.08781135 -0.30267337 -0.24078776 -0.20840465 -0.41945046 -0.057039924 -0.10306433 -0.50418234 0.29204708 0.29659584 0.33235976 -0.14077836 -0.62052935 0.06909049 -0.35003468 -0.059847105 0.28588304 0.13501804 0.14688087 0.1558866 0.39351073
71 -0.2771401 0.27408177 -0.080102846 -0.049241517 0.3320716 -0.5457334 0.11453625 0.78129935 -0.18496685 -0.04182325 0.31906548 0.0020335221 0.2939656 0.10426869 -0.30002078 -0.3267227 0.3197313 -0.56287456 0.17375335 -0.1761269 0.113649786 0.14267981 0.49688473 -0.1310093 -0.47204548 0.21704304 -0.16358899 0.41717002 0.52579725 0.2750748 0.31986296 0.25860474 0.1801914 -0.45150864 -0.9378971 0.14538506 0.50800204 -0.3063105 -0.3247125 0.43286002 0.15081874 -0.6335809 -0.1215775 -0.005210033 0.6799005 0.016670445 -0.36076254 0.25662625 -0.23210633 0.49811763 0.1740439 0.027449016 -0.31772175 -0.09854512 -0.26312724 0.40953878 -0.07768902 -0.67192847 0.10673194 0.6798811 0.039235212 0.08288819 0.24801244 0.07906132
86 0.37738192 -0.33534995 0.32354426 0.16749601 0.3303133 -0.24036099 -0.06729734 -0.034811914 0.030513516 -0.4734294 0.48607728 -0.43922013 0.18275282 0.35284686 -0.1464716 0.1966387 0.027370512 -0.052926593 -0.1459512 -0.22617997 -0.16146338 -0.32686192 -0.13833587 -0.37848195 -0.53798753 -0.20263712 -0.028490074 0.019562187 0.02887477 -0.21791358 -0.034222666 -0.13693659 0.5167242 0.47581193 -0.4896685 -0.6810787 -0.41527992 -0.32397276 -0.3917055 -0.41859758 0.4778111 -0.47355554 -0.117703006 -0.08169136 0.3553247 0.26882952 -0.3131504 0.2898551 0.11786528 -0.1056897 -0.3267266 0.066621765 -0.058254503 0.3968063 0.23569073 0.040195115 -0.2542532 0.053706016 -0.18771987 -0.1879784 -0.04518605 0.37797114 0.067698635 0.49787235
62 -0.047631625 0.2216015 -0.45069313 0.373302 0.05145609 0.25831646 -0.4848832 0.029553166 0.19768648 0.14263193 0.6587778 0.34321088 0.23045489 0.11308124 0.53433764 0.20565629 0.34610432 -0.032528616 0.22934945 -0.25119737 0.34709162 0.08578294 0.4032926 0.13250192 0.2506522 0.026984598 -0.50471556 -0.21290874 0.25991115 0.19386289 -0.17543858 -0.413152 0.21124284 -0.5254063 0.06741554 0.06062838 -0.21666728 0.00018793256 -0.0047063637 0.09411499 -0.69731355 -0.23124167 0.1451301 0.44151452 0.45412698 -0.02501693 0.054839477 -0.03517902 0.36984858 -0.02882387 0.021854825 0.52268803 -0.14441161 0.9263888 0.042023055 0.7983599 -0.3229838 0.18642987 0.20271152 -0.23979351 0.5105239 0.2540739 -0.13459912 0.75017995
74 0.3549002 0.38501585 0.21802375 0.011577135 0.22909194 -0.10712983 0.32329774 -0.084163815 -0.5076201 -0.118027985 -0.31233042 -0.4193156 0.116661325 -0.12692872 0.011714462 0.08168335 0.14592528 -0.01840098 -0.41990048 -0.05431965 0.1464915 -0.0015178509 -0.060712546 0.36877173 0.38849923 -0.043281455 0.75896275 -0.84410167 -0.18979867 -0.47287986 -0.38896316 -0.7230204 -0.12826513 -0.16430134 -0.025946006 -0.27700934 0.19486141 0.43268847 0.06698784 0.07775729 -0.031417724 0.28786424 0.36703068 -0.4107308 -0.27758354 -0.16200717 0.5343471 -0.36542976 0.106066056 -0.0700952 -0.07383513 -0.31430456 0.41547194 0.51300454 0.2826863 -0.66775286 0.48746517 -0.13473584 0.5452805 0.5597801 0.33164352 -0.32692078 0.38571507 -0.69564205
78 -0.0061619584 0.18104948 0.37518167 -0.12873809 0.25530052 0.060129203 -0.6324362 -0.06324424 0.23163061 0.6439718 0.6117115 0.06063365 -0.11358815 0.40605006 0.2662682 -0.31781048 -0.43505964 0.59560627 -0.35175413 -0.1957593 0.82181215 0.34991333 0.45140645 -0.61852515 0.107228056 -0.72353494 -0.11093533 -0.05524051 -0.55543035 -0.32189646 -0.48535895 0.01819214 0.373349 -0.18681759 -0.07195476 -0.17809834 -0.22073297 -0.09351675 0.31210634 -0.09175205 0.008620473 -0.07488973 -0.044556174 -0.16554372 -0.63491756 -0.26751012 -0.48071888 -0.26344478 0.9504805 0.280884 0.17320842 0.28244558 -0.7455419 0.45449236 0.5345198 0.49487808 -0.116638884 0.34379616 0.45286623 -0.3270493 0.4203716 0.07589552 0.51587063 0.6434266
63 -0.059265085 -0.43694657 -0.287176 0.93800527 0.5770479 -0.33904868 -0.020656886 -0.20135286 0.13992813 0.032248236 0.2411402 -0.24826345 -0.30721706 -0.0066817347 0.2590547 -0.03709608 0.3239736 0.38458228 0.050554734 -0.3200769 -0.7810893 0.2959608 0.29569662 0.5290532 -0.50589573 0.20092085 0.65826875 -0.71485627 -0.15301289 -0.7227146 -0.2806509 0.04695503 0.26991048 0.054744698 -0.3390843 -0.62509495 0.3020062 0.46431854 -0.051614154 -0.26626796 -0.09283872 0.052677818 0.15322073 -0.27224505 0.3405049 0.318661 -0.02176448 -0.054618146 0.33691436 -0.14029962 -0.165059 0.16680078 0.401067 0.14287515 0.6917395 -0.53135556 -0.5407914 -0.03205387 -0.041109327 0.031337503 0.041673537 0.42269582 0.4815181 -0.33751452
27 -0.26487938 0.36197892 0.59410363 0.0028251065 -0.3874815 0.036311246 -0.22788858 -0.08604967 0.28066325 0.1822088 -0.15756002 -0.32489964 0.417598 0.02875728 -0.17997007 -0.06129489 0.16678539 0.25645384 0.7555706 -0.059909202 0.120263614 -0.35202897 0.14686348 -0.50930816 -0.013383052 -0.06496625 0.13479887 0.20155714 -0.023716552 0.39545724 0.19620444 -0.028940225 -0.1224445 0.0075779045 -0.65661913 -0.5210785 -0.44585642 -0.04814017 0.45877475 0.105527684 0.18585995 0.2624622 -0.047356673 -0.053958133 0.17948216 -0.04735075 -0.13212298 0.4356462 0.44331405 -0.045547478 -0.33721817 0.93154573 -0.100193866 0.2694679 0.23490058 0.41552415 -0.28519723 -0.059833564 0.059055246 -0.20233856 -0.018166568 -0.34118792 -0.26886016 -0.06717855
85 0.21206091 -0.042945076 0.16034979 -0.27984712 -0.03208804 0.051953204 0.13066556 -0.29977047 0.08028591 -0.81635314 -0.16046768 -0.110823296 -0.03978686 0.32686988 0.44678348 0.3693422 0.033883564 0.42650178 -0.053043105 0.35479996 -0.19971865 0.11941565 0.26100212 -0.21036439 -0.19023024 -0.77006674 0.31847903 0.12018086 -0.37663665 -0.06881812 -0.1809873 0.24366358 0.23553813 0.19419117 -0.9809238 -0.1745355 -0.40035138 0.6591758 0.19002928 0.22790717 0.2729569 0.30748978 0.046416 0.0638216 0.7082751 0.22036463 -0.27407876 0.068927035 0.13550963 0.4440086 0.24044718 0.4311115 0.24811704 -0.29281858 0.31885967 0.51605517 0.078239724 -0.5285974 0.6590581 0.21181592 0.31967592 0.31338796 -0.27506697 -0.00862655
22 -0.05202666 0.30768302 -0.017843531 -0.39304504 -0.21120071 0.40555385 -0.5404757 -0.1492715 0.047050457 0.07188064 -0.10374265 -0.51899725 0.20326233 0.3053027 0.21714427 0.45223868 -0.39878473 0.005312646 0.07415539 -0.23119798 -0.28019735 0.11699912 0.0885741 -0.020371642 0.43489653 -0.27523383 0.17887546 0.26145953 -0.9746433 0.19889109 -0.18679956 -0.08682779 0.106057905 -0.17227659 -0.019718545 -0.36437845 0.55700755 -0.004119061 0.084290065 0.26834416 0.2045977 0.16197148 0.2056926 0.16217752 -0.097005695 -0.1127546 -0.30812496 0.50454664 0.28372288 -0.2574665 0.62692 -0.077186435 0.5925675 0.6652699 0.15733889 0.16477641 -0.0013852651 0.1047993 0.2233704 0.049825348 -0.2901037 -0.14603658 0.07761961 0.35751733
13 0.160915 -0.27020738 0.06445115 0.21624884 0.21856117 0.37564716 0.73216605 -0.1650442 -0.24963932 0.45509785 0.14430203 0.01435989 0.14346184 -0.30365002 0.096679695 0.15677406 0.32460034 -0.00041711534 0.5106039 0.07875762 0.5898616 -0.22926177 -0.39801535 -0.3783537 0.32429808 0.31264204 -0.1983873 -0.3220573 -0.3311193 0.2846644 -0.19975632 -0.34277037 -0.023722412 -0.20132479 0.2620304 0.36721563 0.25803855 -0.07844097 0.19911775 0.62260145 0.53833044 -0.44128576 0.6634636 0.04846189 -0.38668814 -0.32896137 0.030541247 0.85216576 0.2933678 0.2567878 0.50064427 -0.027609147 0.18082112 -0.018344494 -0.030081263 -0.028583732 -0.30496955 -0.18294813 0.114280574 0.827385 -0.14284886 -0.27385408 -0.247822 -0.25284526
60 0.012757975 -0.04323418 -0.68464875 0.83658254 0.022313977 0.26405516 -0.31673706 0.23595873 -0.3802197 -0.18534334 0.63449556 0.13799798 0.40445364 0.5341656 0.13686304 -0.12931378 0.05763181 0.099754244 0.27204636 -0.32245618 0.1422054 -0.4656174 -0.62000847 -0.56116694 0.36364633 -0.21893246 0.35406405 -0.5794996 0.02671723 0.60806376 -0.16327113 -0.03642008 0.44184732 0.43115512 0.12646051 0.2996302 0.11088402 -0.58300996 0.014250148 -0.055641577 0.18027815 -0.54720175 -0.15552853 0.2371308 0.3385007 0.33646518 0.095971756 -0.91575307 0.033671245 -0.28259686 0.57532763 0.23313844 -0.14118499 -0.061798487 0.07987728 -0.13518827 -0.19393644 0.040688857 0.0021405588 0.012259087 0.17791075 0.26477182 0.2986298 0.0077069867
18 -0.010654993 0.19247912 -0.57222736 -0.62120485 -0.14900053 0.17144726 -0.4966002 0.22304612 -0.0156243825 0.31183708 -0.27538213 -0.59887534 -0.1841855 -0.11171836 0.36485523 -0.5843291 -0.05805974 0.04817399 0.65037173 -0.29770932 0.18121116 -0.035330296 -0.19780415 -0.0023371668 -0.09685878 -0.3914657 -0.055901267 0.15214165 -0.102066934 0.41237214 0.5360304 -0.21323536 -0.5145498 -0.94761044 -0.5391325 -0.6351874 -0.47508368 -0.00024589684 -0.08957284 0.11406641 0.2154529 0.44670752 -0.20107396 0.42331636 0.32761365 0.7993577 -0.25879848 0.51256007 0.07601831 0.5642787 -0.5775676 -0.24477093 0.39790708 -0.20619042 0.650427 0.32482177 0.004259683 0.1563565 0.06435796 -0.37641802 -0.10413014 0.025553633 0.39841968 0.12538105
70 0.05425609 0.007843707 -0.91879934 0.063944384 0.32134122 -0.6015271 0.72903687 -0.53551704 -0.19511077 -0.29477504 0.37605435 -0.08743594 -0.31410438 -0.16376902 0.21204644 0.14592767 -0.1949991 0.42981726 -0.13319977 0.4371717 0.48576042 0.14580749 -0.33980182 -0.49636507 0.23275389 -0.2559681 0.0420358 -0.06945421 0.008419268 -0.04475081 0.3221195 -0.7399224 0.032464486 0.55649775 -0.020903047 0.5530043 0.07591093 -0.09589382 -0.736422 0.3680856 -0.06971773 -0.7203769 0.16912925 -0.08704417 0.22196518 -0.25235158 -0.13833775 -0.26797664 -0.18814488 0.5768532 0.18421797 -0.48491424 0.29117474 0.06230882 0.57869136 -0.080328524 -0.101584285 0.080856495 0.5096414 0.07095547 -0.06571204 -0.030072056 -0.0053417133 0.14084435
4 0.5521766 0.15174568 0.011176911 -0.27695385 0.18964206 -0.36662716 -0.26303598 -0.4679736 0.18284117 0.032361522 -0.008834949 0.021794673 -0.010137222 -0.27509603 0.13138266 0.4783373 -0.07247211 0.9719544 -0.19179147 -0.43402317 -0.258982 0.50789964 -0.03068998 -0.16173667 -0.23905939 -0.5000283 -0.1557723 -0.4408953 0.012183804 -0.071437754 0.3249696 -0.33863196 -0.42265052 0.5175641 -0.5268054 -0.0048545646 -0.68611956 0.043476075 -0.8160827 -0.061580252 0.002432 -0.3095389 0.15316679 -0.13506521 0.13399842 -0.37204817 -0.0098206885 -0.24536967 0.3218155 0.22332603 -0.250853 -0.38260257 0.27768913 0.008998214 0.6584931 -0.4621824 -0.0177541 0.47941142 0.42723113 -0.35126272 0.022625268 0.65614563 0.6953875 -0.058509998
38 0.2947669 0.054859105 0.21702099 -0.5865684 0.37321836 0.24537697 0.054347333 -0.43171865 0.4355116 -0.36422905 -0.21573092 -0.3324517 0.20881955 -0.43529367 0.19737841 -0.05561925 0.40803277 0.643935 0.7016702 0.06413516 0.8279846 0.4906076 -0.21785586 0.07157921 0.28684857 0.5177988 0.14259197 0.6091554 0.17879099 -0.22634727 -0.5345043 -0.5146675 0.81665987 0.16258079 -0.21858113 0.14810774 -0.06674197 0.38948998 0.24906872 -0.16510278 -0.23697814 -0.11094686 0.4410592 -0.7133924 0.35429457 0.30080718 -0.3669692 -0.21433422 0.6509895 0.09686005 0.9015344 0.14345227 0.26796973 0.16165563 0.34831285 -0.2514184 0.2982743 -0.42240855 -0.0474271 -0.6602749 0.1429082 -0.20216264 0.18937615 0.20706761
0 0.053735655 -0.156236 0.60892403 0.80971014 -0.32834437 0.15474598 -0.61025447 0.37593326 0.03440211 -0.02078312 -0.4679215 -0.06359711 0.39313805 -0.19098902 -0.28683025 -0.13108021 -0.15768161 0.47197896 0.4317378 -0.24281009 0.2847999 -0.448085 0.47863793 0.06891774 -0.48999828 -0.60357386 0.49056002 -0.51568156 0.45904106 0.33516607 -0.24342948 0.25296837 -0.04481802 -0.2971155 -0.50588465 -0.119499944 0.13231136 -0.013835054 0.5878977 -0.34281567 0.20713301 -0.33617613 0.37593898 -0.5006532 -0.031221902 0.15496734 0.70662504 0.14940552 -0.0034455494 -0.21168827 0.10882293 0.63499266 -0.0018093556 0.3747153 -0.3595358 -0.5718223 0.48933828 0.031729296 -0.43896666 -0.068248704 -0.26507163 -0.3800605 0.7422308 0.038619496
23 -0.52615327 -0.07114276 -0.29201704 -0.013259154 0.4657707 -0.11352049 -0.004584134 -0.3065874 0.15717463 0.06148756 -0.061400026 -0.20826882 -0.05579902 -0.30577618 -0.33622307 -0.111138985 0.039902743 0.20682988 0.12531959 0.50483745 0.8701943 -0.5766505 0.24594261 -0.27512568 -0.23161274 0.8080977 -0.18425927 -0.44206586 0.5661861 -0.24272348 0.45408615 -0.11060677 -0.20387414 0.4247166 -0.036010854 0.43722153 0.020130303 0.14699623 0.088712625 -0.23668614 0.6667657 0.24164076 -0.21061431 -0.20584275 0.5612673 -0.039362706 -0.22250584 0.26547903 -0.04393664 0.43089098 0.23148115 0.25872058 0.18274869 0.63090223 0.74414337 0.06823327 0.2352019 0.17888202 0.18191409 -0.10237735 -0.12977451 0.1648698 -0.42011663 0.53646284
98 -0.057654485 0.6274202 -0.7923409 -0.360312 -0.5228534 -0.032619428 -0.6173215 0.45256847 -0.7130654 -0.4819859 0.36014393 -0.51961607 -0.19598936 -0.18685748 0.32632878 0.3595493 0.34757927 -0.8222707 -0.010499556 -0.3169023 0.6511059 -0.3080986 -0.45182085 -0.29858494 -0.05569699 -0.16702598 0.38547918 -0.10214455 0.24030606 0.3204581 -0.13259968 -0.72991073 0.28588107 0.02646692 0.20760052 0.08289453 -0.010517991 0.30601114 -0.079874255 0.013268096 -0.06655499 -0.10432104 0.4616492 -0.3083751 -0.037085727 0.54996777 -0.1705873 0.40700847 -0.23863901 -0.45994532 -0.68781155 -0.4489714 -0.1306375 0.4117693 0.13491638 -0.28622058 -0.18671902 0.05096387 0.2671841 -0.7660536 -0.038638223 0.3270286 -0.1439009 0.061915793
24 -0.017560517 -0.09976231 0.1850103 0.47789463 -0.3227734 -0.5064934 -0.20255224 0.07561959 0.23868482 -0.5353539 -0.33172616 -0.86723065 0.49532494 -0.43986148 -0.17515525 0.70867103 0.41646907 0.3214864 0.41635743 -0.30127776 0.3391699 -0.26606265 -0.003856692 -0.8028199 0.041014526 0.16870299 -0.011859236 0.12804802 0.41950312 0.5106226 -0.42384136 -0.41654623 0.106791414 0.7586402 0.42131868 0.4400533 -0.09030984 -0.11245862 -0.3147185 -0.3229054 0.11750986 0.18770114 -0.16659367 -0.012279677 -0.029982384 -0.017524252 -0.4208015 0.3207326 -0.40132642 -0.6919714 0.1650401 0.004301249 0.6102209 -0.22935829 -0.4228967 -0.15719703 0.056480747 -0.2861968 -0.33652148 -0.13796897 -0.28123432 -0.052826162 0.23396489 0.7200928
28 0.26654765 0.02926329 -0.18046942 -0.08270167 -0.2590412 -0.48895222 -0.035175137 0.37732875 0.22956398 -0.22183655 0.65435785 -0.54956704 0.16931352 0.165269 0.29018718 -0.16143735 0.14852549 -0.30272177 0.18593337 -0.51005316 0.6688161 -0.5155122 0.4676406 0.42448798 -0.33891454 0.017628765 -0.2038969 -0.053322393 -0.16010875 0.29860672 0.5985936 -0.1791808 0.3268513 -0.4224924 0.20818031 1.0335586 -0.065761186 0.21716273 -0.30395278 0.37068814 0.35953498 0.21548742 0.31124517 0.37719142 -0.18059231 0.22377484 -0.5867469 0.34266424 0.1638215 -0.2198438 0.05830747 -0.61173654 0.3585294 0.53165853 -0.04355082 0.45632693 0.024736727 -0.10103169 0.21482545 0.39753434 0.054383643 0.19646768 -0.44891554 -0.017911494
8 0.54638255 0.47665304 0.5447538 -0.2910306 0.36044386 0.16323636 0.484968 -0.2953662 -0.092624746 -0.10596654 -0.18254787 -0.011942477 0.3719308 0.3881654 -0.03827463 -0.098395675 0.17876945 0.24828412 0.15807126 0.020330805 0.15297394 0.18354496 -0.104757726 -0.362916 0.149521 -0.10915254 0.4071453 -0.7629811 -0.08919975 -0.20105529 0.20022228 0.13030079 0.15170111 -0.26042724 -0.1531902 -0.3945627 0.5295217 -0.5861839 -0.21988152 0.77149093 -0.18053195 -0.36030835 0.0038166929 0.004350544 0.24259833 -0.5480375 -0.11341775 -0.031793583 0.67480624 0.6691406 0.24536872 0.10821827 0.15740535 0.18427697 -0.13720322 -0.47824246 0.07401373 0.113389194 0.005377888 0.20081483 -0.060933065 0.07511772 0.28408206 0.22490168
76 -0.07599785 0.060512602 -0.5695381 0.2212593 -0.04565083 -0.227905 -0.40858728 -0.07967516 0.21715508 0.7973635 0.03801922 -0.88460076 -0.18446623 0.52315515 -0.1586442 0.31730962 -0.21268775 -0.33522844 -0.32030457 -0.106586665 -0.8365232 0.019776758 0.46749103 -0.0028077767 -0.013574357 -0.39136824 0.14159217 -0.30786222 -0.4706976 0.2779738 0.16099985 0.44541 -0.34507215 0.28462446 -0.79434097 0.08070868 -0.28046918 0.44721836 -0.36730817 0.47773743 0.47019374 -0.27050424 0.35915694 0.055084676 -0.10214935 0.8165295 -0.112203486 0.07387572 -0.3360373 -0.38213345 0.8021047 -0.09510308 0.06563419 0.33263293 0.730753 0.5727262 -0.27912015 0.030264542 0.26020312 0.33195892 0.082310945 -0.40246361 0.11255628 0.10280621
54 -0.5587582 0.058021016 0.29639882 -0.3175175 0.0206391 -0.6548175 0.35647127 -0.4003566 -0.6571379 -0.18108243 -0.2970419 -0.070716895 0.3454031 -0.87587136 -0.3497093 -0.096380085 0.65971726 0.21088375 0.17675792 0.3659482 -0.0318099 -0.11525674 -0.008441796 -0.4065641 0.33207196 -0.14142351 -0.08719072 -0.054645933 -0.06181387 0.43497673 0.22305726 0.2181605 0.30552265 0.10622984 0.3512218 0.3603138 0.011234189 0.6873692 -0.9435562 0.6142959 0.018141223 -0.030770773 -0.63935196 -0.18098147 0.40547454 -0.0355797 -0.117342144 -0.37919432 -0.2225301 0.4300554 0.006965245 -0.051928435 0.09768092 -0.044449165 0.50330824 -0.23159865 0.00724933 -0.21694882 0.72147095 0.9773428 0.7839014 -0.16760434 0.28540358 -0.21627247
31 -0.10915165 -0.2624179 -0.13017428 -0.22984684 -0.69502294 -0.002175389 0.46144366 0.37495184 -0.34144494 0.016241688 -0.036591813 -0.37362868 -0.06265768 -0.06836911 0.13525316 -0.24135055 -0.16032153 -0.09545508 -0.11432757 -0.10432659 0.41052923 0.007857415 0.093559474 0.15621296 -0.34694928 0.0027300883 0.5181307 -0.20052712 0.27855965 -0.30540144 -0.5435917 -0.6320266 0.18536426 -0.22454935 -0.7255008 -0.08084283 -0.2514064 0.64312047 -0.49980572 -0.019491473 -0.46645778 0.5337835 -0.15265723 0.3068886 -0.40918463 0.3017109 -0.3590082 0.100031815 0.14579791 0.04114859 0.12177269 -0.36513698 -0.13314639 0.41584837 -0.36062366 -0.2950104 -0.064086325 -0.49579242 -0.063651375 -0.3736575 0.016305672 0.33533424 0.36877725 0.093204126
99 -0.38948956 -0.28233087 0.58966947 0.09499773 0.36585963 -0.37524614 -0.16020375 -0.45411777 -0.1590843 -0.18563655 -0.30513856 -0.52331996 -0.25294724 -0.35084578 0.37371486 0.027945658 0.53095436 0.11618093 0.4149311 -0.006064541 0.19777994 -0.43890238 -0.3697801 0.32681626 -0.37513536 -0.054935098 -0.17714627 -0.17772338 0.24739294 0.31577694 -0.44132707 -0.13412552 -0.06911605 0.08810653 -0.07985415 -0.05930362 -0.21390443 0.3074011 -0.15545824 -0.007915176 -0.048803277 0.0006875712 0.41063336 -0.30545422 0.22166364 -0.028220605 0.8505962 0.4455199 0.15221775 0.5334228 -0.33917353 0.26796857 0.13961692 0.71423405 0.4728909 -1.092943 0.35723728 0.1677283 -0.074229345 -0.13095245 -0.01892338 -0.5084532 0.37497428 -0.22582254
68 -0.012536034 0.013213112 0.22355616 0.45108402 -0.17259549 -0.6038085 -0.21344668 -0.08170618 0.1433083 0.44252664 -0.13661158 -0.3596575 0.2419389 -0.023031645 -0.49717206 -0.44279197 0.217292 0.009225904 1.1706185 -0.35746086 0.28271085 -0.33971432 -0.9236911 -0.533777 0.24575421 0.4659679 0.64635396 -0.052184917 0.11616138 0.17504793 -0.036244165 0.018550048 -0.13393597 -0.029028282 0.38681927 -0.04599382 0.24704243 0.17107043 -0.7745005 0.21568033 0.23870644 0.3701264 -0.27669728 0.37147745 -0.23021239 0.49223256 -0.21292855 -0.8404999 -0.4634915 -0.29300123 0.20097548 0.4488096 -0.21924002 0.6432393 0.12865254 0.024144545 0.24630359 0.056496933 0.319083 0.059445642 -0.25883457 0.09744714 0.035326466 0.38119215
65 0.60041904 0.09958618 -0.033290476 -0.7679631 -0.30837494 -0.2789331 -0.28080708 0.6417845 0.021759646 -0.42568594 0.111538075 -0.3403097 -0.026011882 0.64188147 0.46765575 -0.22178032 -0.38651845 0.09586837 -0.12569386 -0.2663601 0.10156834 0.047535237 0.7247918 -0.6667419 -0.021492207 -0.25356328 0.41639858 0.7732249 -0.28155017 -0.01227561 0.40216014 -0.007951417 0.23104136 0.01083422 -0.7481426 0.04380216 0.2325 -0.37456492 -0.041275274 -0.5336418 0.468072 -0.3592377 -0.16624226 -0.8614154 0.33571774 -0.28534633 -0.5160918 -0.030610226 0.3771631 -0.21109496 0.24137917 0.02376774 0.11650138 -0.33317953 0.534236 -0.49303362 0.012989396 -0.2989294 -0.21787797 0.19855635 -0.28385347 0.52332205 0.22985299 -0.065680526
25 0.015410068 -0.4997857 -0.29342228 -0.12294344 0.15900972 -0.028894208 -0.15497372 -0.22477883 0.71947783 -0.3101739 0.18619615 -0.5261391 -0.09541626 0.43612295 0.5513029 0.43075287 -0.18337537 0.34479415 0.69002825 -0.30815077 0.32484615 0.40158057 0.18676051 -0.0839471 -0.19826363 0.02686395 0.18594362 -0.06161064 0.17465913 -0.058288667 -0.54113007 -0.43999657 -0.31563476 -0.3007647 -0.41728863 0.06604581 0.96962154 -0.27618662 0.017334646 -0.09381076 -0.39564416 0.27792913 -0.06527301 -0.2509172 0.4844396 0.5909167 -0.32586703 0.6868467 0.34054017 -0.3739788 0.6184757 0.48730916 -0.13040175 -0.13915482 0.2071435 -0.40414414 0.20815751 -0.18674469 -0.17513569 -0.54700553 -0.17338118 -0.15553038 -0.46186608 0.13315094
15 0.18329377 0.0018846039 -0.3470915 0.15513189 0.17649785 0.056584816 0.38897708 -0.004058743 -0.25004658 0.23710547 -0.068308875 -0.13120708 -0.19150786 0.14673635 0.61893976 0.09879115 -0.09354064 0.21660349 -0.4270871 0.3429059 0.17925358 0.08832478 0.3448552 0.07464333 -0.1569443 -0.23251152 0.110880546 -0.5179929 -0.35186252 0.19597538 0.11713592 -0.24418311 0.14435114 -0.09957128 0.2418454 -0.049016815 0.07584406 0.46268925 -0.38524377 0.81785184 -0.22659858 -0.071063116 0.55103153 -0.23830913 -0.67854244 -0.38503483 -0.24301104 -0.0028382367 0.31310543 0.06239593 0.6516064 -0.7085035 0.24120912 0.29175076 -0.60989267 -0.16279727 -0.03294958 0.10121354 0.0069662128 0.34308216 -0.022277208 -0.08486427 0.68913245 -0.036108844
40 -0.18824093 0.7148781 -0.0034540955 -0.12372893 0.3778902 -0.41396776 -0.47040543 -0.15134062 -0.0945462 -0.6012606 0.1030557 0.24745852 -0.05233739 -0.3985446 0.33952278 0.3879667 0.17580691 0.7667515 -0.19929807 0.35983872 0.47091615 -0.117487855 -0.47194362 -0.34374356 0.14360797 0.23836352 0.12775648 0.4392303 -0.2915126 0.42389363 -0.25298157 0.4490847 0.551796 -0.12784442 -0.22043054 -0.15031391 0.38673228 0.10489579 -0.2560558 0.44934672 0.15255262 -0.102353595 0.529084 -0.92281455 0.013190349 -0.019007616 0.13399284 -0.13288087 0.7580058 0.4671917 0.30001163 -0.55233943 -0.37812087 -0.08909575 -0.2749606 -0.124731906 0.3386534 -0.36729744 0.253207 0.090428196 0.216463 0.026972495 0.037783902 0.4113575
69 -0.31024072 0.200208 -0.2769056 0.79117745 -0.18297836 0.34758717 0.12685758 -0.45687622 0.12608059 0.637133 -0.17514439 -0.063707985 0.31698 0.1909445 0.42808518 0.6689409 0.15837859 0.11408636 -0.04649067 0.18227059 -0.03623385 -0.07843891 -0.007007858 -0.65239 -0.15880263 0.58367574 0.8244343 0.2780444 0.28793082 0.1581071 0.07774709 -0.3511917 -0.28274846 -0.33441177 -0.45414898 0.71926296 -0.13273211 -0.14687914 -0.16611564 -0.99444383 0.3049628 0.32514963 -0.6320276 0.17659877 -0.10536272 -0.39253664 -0.45859265 0.07809008 0.042666394 -0.16663532 0.3509952 -0.21965216 0.4303982 -0.1667882 0.065722756 0.1377524 -0.3788112 -0.7383311 -0.35566646 0.22478035 -0.42414403 -0.11127649 0.0025308141 -0.12609349
93 -0.5668298 0.47037408 -0.4427184 0.1947299 -0.31980345 -0.34640476 0.08263863 -0.34764218 -0.56213474 -0.71915966 0.09804261 -0.17070879 0.2369258 0.21210085 -0.24047868 0.088098116 0.278957 0.6308654 0.20217866 0.19881669 0.11680706 -0.027515981 0.21521527 -0.06370617 0.25646752 0.0016306237 0.97277945 -0.4379283 -0.47511274 0.19350584 0.95393604 -0.010169652 0.21189028 0.08633227 -0.40774548 0.036607593 -0.35006693 0.0062734107 0.26588592 0.4256513 0.09671094 0.07945547 0.20311803 0.02681125 -0.019381657 -0.09077373 -0.3673639 0.54392076 -0.26314777 0.56842095 -0.009804318 0.1977263 1.0130948 -0.16860355 -0.19901656 0.19290815 -0.56097496 0.29663125 0.099742465 -0.28909895 -0.3472138 -0.3554981 -0.038836427 -0.047948346
72 0.46577904 0.05498226 -0.027265217 0.13708349 -0.091099925 -0.51477295 -0.4294774 0.023399772 -0.0739455 0.061304938 0.45450616 -0.5733061 -0.68905824 0.10644678 0.19162329 0.107136406 0.18531197 -0.2516278 0.1872049 -0.28492233 -0.35133323 -0.21549453 0.67328644 -0.11824429 -0.1918214 0.115236364 0.13986023 0.50871146 0.27903765 0.23867781 -0.13228458 -0.19633633 0.73050654 -0.19502603 -0.4368754 -0.032583617 -0.28766185 0.43786758 -0.32268712 0.4143114 -0.08996163 -0.11650649 0.057378057 -0.30370128 -0.409983 0.6308458 0.045079976 -0.41340986 0.14961553 0.17350489 0.27432218 0.5987025 -0.3543103 -0.03844691 -0.018208722 -0.47525465 0.5405244 -0.3375404 0.296992 0.89901996 0.1883308 0.35611653 -0.4339519 0.20412983
61 0.5557338 -0.24750647 -0.09474111 0.28391266 0.4550092 -0.46066743 0.11065807 0.70068073 0.0091334125 -0.27392462 -0.15481763 0.54876035 0.1098171 0.2640891 0.4349055 -0.19493805 0.309125 0.44172323 -0.14993711 0.36143014 0.2772453 -0.34737587 0.8196577 -0.34539476 -0.5113018 0.21429934 0.3098198 0.048348524 -0.44159392 0.26645976 0.23013574 0.2809315 0.33817437 -0.35669014 0.15775988 0.3939205 -0.14555791 0.18067108 -0.05522597 0.22958674 0.50703 0.036056742 -0.2082085 0.13189067 0.6531594 -0.3934292 -0.4544141 -0.14875644 0.15422921 -0.025244454 -0.089268625 0.23406379 0.33461526 0.20211786 0.29792553 0.61710006 -0.5595381 -0.2354739 0.33242854 0.3754826 0.17468007 0.590159 0.034614813 -0.06117069
12 -0.18703376 -0.4521058 -0.34624374 -0.14666727 -0.038844604 0.21055216 0.12442226 -0.23045687 0.0200043 -0.64543223 -0.31548056 0.14772637 0.024422852 -0.5316587 0.21931319 -0.07649795 0.21126734 -0.088259354 0.42171893 0.22450633 -0.46685648 -0.3330124 0.14404513 0.29437548 -0.23706564 -0.78405946 -0.38676915 -0.02020845 0.35836276 0.45626554 0.0056047314 0.24059997 -0.26951444 -0.27416855 -0.0841216 -0.23168036 0.28364295 0.5227632 -0.16687599 -0.041620024 -0.06843925 -0.3682567 -0.025957836 -0.7892774 1.2194026 0.1403929 0.34078714 0.42388207 0.28433898 -0.20094946 0.4111414 0.9483153 0.30054656 0.77266973 0.4609034 0.10880161 -0.24360682 -0.29051736 0.47506788 0.3467051 0.16395792 -0.50303096 0.114520974 0.029218584
33 -0.34673512 0.009860327 0.04535668 0.35555887 0.661137 0.18486841 -0.9875884 -0.112935 -0.040147226 0.30590752 -0.4519332 0.47328135 -0.22778612 -0.20611456 0.721366 -0.056581132 0.14163311 0.70331204 0.34907278 0.3047928 0.74750996 0.09125779 0.23731041 -0.21383499 -0.06515948 0.1798083 -0.2839415 0.15042607 -0.29869565 0.5625861 -0.22868584 -0.24465758 0.17670675 -0.4211949 0.037713233 -0.05965316 0.035278074 0.20693137 -0.4423279 0.52495867 -0.2683812 -0.75417906 0.37063816 0.42040044 0.5241029 -0.22972055 0.6290041 -0.18170816 -0.630494 0.23873019 -0.07958383 -0.1413601 -0.17708784 0.08060887 0.19723175 -0.7786677 0.46366352 0.12889378 -0.2088024 0.10321032 0.12588795 0.02548789 0.4880028 0.08147973
46 -0.7052021 -0.014502071 0.1856599 0.38022214 0.3996614 -0.6768865 -0.25902474 -0.267854 0.31721175 -0.6128192 0.730306 0.04962137 0.9756536 0.5608899 0.082404725 -0.08632169 0.030703774 0.37141103 0.04498329 0.26194796 0.39197135 -0.09088729 0.033275478 -0.03775775 -0.072365195 -0.29265237 0.119155 -1.107456 -0.6767909 -0.016269093 0.7727632 -0.1190348 -0.21777347 0.27204925 -0.056910634 0.003440366 0.067562774 0.06919914 -0.054372117 -0.24655169 -0.11731427 0.2152247 -0.80979437 0.26186013 -0.026999922 -0.112005286 -0.3832685 -0.094753936 -0.16639 -0.50300276 -0.17760074 -0.34292743 -0.06972271 0.27294928 -0.35299453 0.040865637 0.024450738 0.5135659 -0.078717396 0.40397134 0.28181463 -0.046963464 0.16214867 0.428288
87 -0.110906854 0.08022242 0.5785935 -0.5815047 -0.18971424 -0.09516797 0.14701387 -0.23670319 0.076770216 -0.78692067 0.66694874 0.475471 -0.003584469 -0.16936609 0.051899906 0.20738563 0.47015595 0.16952157 0.55883664 0.24479155 0.44634992 -0.11955091 0.23869638 -0.17750731 0.056100357 0.014263253 0.15929791 -0.22340913 0.79326624 0.4462186 0.25461 -0.21990249 0.47661278 0.28913608 -0.44941387 0.71026456 -0.2909597 0.16132194 0.020069167 -0.3175105 -0.055033952 -0.16080964 -0.3130352 -0.18320295 0.08910263 -0.9137281 -0.2744126 0.044050667 0.5559176 0.35905606 -0.099326424 0.17432368 -0.16931841 0.290055 0.16095401 -0.7041052 -0.46403548 -0.109711975 0.37256515 0.4616847 0.28709722 0.7428573 -0.53477633 -0.48174742
73 0.06338532 0.35304788 -0.54855394 -0.2472413 -0.08625931 0.11767672 -0.5424425 0.22119364 -0.8533626 -0.9539898 0.32892054 0.030421318 0.107047014 0.27085784 0.10520064 0.09780812 0.09337601 0.099287465 0.22106676 -0.34139612 -0.32178414 0.050881788 -0.25680342 -0.18534932 -0.0811607 -0.28893262 0.62380105 -0.08802107 0.19863158 -0.086291544 0.37023002 -0.6484549 0.48611864 0.1642705 -0.39740977 -0.819525 -0.4504979 -0.05215566 -0.17504089 0.01391361 -0.024439463 -0.51475894 -0.012450843 -0.34793216 0.47878805 0.50635016 -0.58052236 0.3751688 -0.0938262 -0.2311067 -0.104094744 0.05227744 0.49885687 -0.3398539 -0.18855084 -0.73624694 -0.13665847 0.6729775 -0.024452876 -0.802778 -0.47235587 0.65401876 0.27694267 -0.4184773
50 0.080120616 -0.29694006 -0.10802679 0.51321036 -0.14557342 -0.23699676 -0.7241713 0.023573978 0.3311291 -0.20051204 0.37924904 0.018394453 0.37813312 -0.0052023367 0.5445266 0.3565613 -0.048436698 0.4675838 -0.07228605 -0.7097813 0.46022606 -0.013078806 0.6234414 0.21583141 0.1878304 -0.06908158 -0.041741192 -0.49269918 0.58248377 0.6540796 -0.23189346 -0.36577404 -0.024539677 -0.45529163 0.7135449 0.77125835 0.93251216 -0.4038924 -0.14077282 -0.087346435 -0.048057303 -0.1039629 0.093859136 0.026684461 -0.071530215 -0.4727849 -0.47064036 0.37938505 0.38519925 -0.72248936 0.2086944 -0.33723652 0.4288921 0.12729143 -0.1776753 -0.7932334 0.05382219 0.27851155 0.012567471 0.18337692 0.011067544 0.02763451 0.0963697 -0.7505326
56 0.3971011 -0.46016237 0.19231687 0.13048175 0.40098968 0.21373747 0.6924129 0.3375611 0.09032254 -0.76506 -0.19846612 0.022114314 -0.15355636 0.4978254 0.7787068 0.1610771 -0.13330594 -0.5451199 0.075497515 0.22276129 0.101921126 -0.42591846 -0.883591 -0.52223575 -0.9045598 -0.708798 0.006499091 -0.28232795 0.09980316 0.19348711 -0.7402794 -0.5693028 -0.34662423 0.5075655 -0.14180486 0.30194294 -0.2733112 0.14405058 0.09007444 -0.5238422 0.04500593 -0.19791326 -0.10116491 -0.20507085 0.08237551 -0.3504054 -0.23473322 -0.136659 0.39675748 -0.47793782 0.30048847 -0.1580459 0.013472178 0.37007108 -0.38741872 0.015152441 0.27195808 -0.34831142 0.34429848 0.49798307 -0.08105218 0.12750906 0.6708745 -0.018104827
92 -0.64762723 -0.20507155 -0.7233691 0.053628933 -0.32278952 0.06594883 -0.18581471 0.20364216 0.06283741 -0.20571579 0.05350745 0.14046034 -0.024164714 0.06478776 0.9547314 -0.1328222 -0.1706878 0.12674944 0.2616489 0.73369306 0.46382076 -0.5460627 -0.41956326 -0.4295109 -0.44276294 0.2259557 0.18134868 -0.8227386 0.00853584 -0.106762685 -0.18625146 0.13168804 -0.23686191 -0.046546385 0.1708145 -0.13167849 0.060573284 -0.06929967 0.12686382 0.5123512 -0.3904862 0.20672856 0.2194324 -0.612283 0.61947376 -0.04779856 0.2133978 0.26039636 0.051562663 0.5774717 0.01924918 0.024000866 -0.008549675 0.4687003 0.008142096 -0.39097056 0.3491571 0.7937717 -0.023169134 -0.6366751 0.32290325 0.21203385 0.25972584 0.8069902
96 -0.89174986 -0.37180534 -0.17731412 0.95181555 0.14126988 0.39016092 -0.04334432 -0.44235367 0.4857229 0.44389382 -0.026349943 -0.06707298 0.06662835 -0.25081608 -0.27231148 -0.21670577 -0.40325493 0.2531889 -0.20490903 0.019734934 0.14662373 -0.56649476 0.044129495 0.30345356 -0.50685096 -0.055324256 -0.3975344 0.14339757 0.3111778 -0.018173689 -0.25127488 0.0844074 0.25438696 0.10167368 -0.41197655 -0.2901462 -0.0105810445 0.07578756 -0.22665212 -0.45159644 0.36303332 0.23753864 -0.04647229 -0.38780457 0.39376026 -0.017733626 -0.35301948 0.11975402 0.595981 0.48144925 0.32158267 0.6546914 0.6529008 1.0254406 0.14548843 0.28019816 0.39643627 -0.09821345 -0.031699937 -0.38481504 -0.37117702 -0.6506657 0.34813434 0.08095132
7 -0.51466495 0.08153088 0.037507012 -0.10343413 0.296195 0.19336388 -0.098304056 0.021709468 0.3178543 0.30858555 0.18384372 -0.37297714 -0.028328076 0.621631 0.50982946 -0.5906257 -0.06542264 -0.3898016 1.1412802 0.38432983 0.37723878 -0.11021686 -0.21182895 0.21430098 0.53036475 0.2430454 0.035875976 0.21872449 0.6414324 0.7949857 0.4852864 -0.0647124 0.21662553 0.04196976 -0.17129016 -0.94768226 -0.20017403 0.31429502 0.3295735 0.102050796 -0.20791636 -0.35144436 0.57782936 -0.45647353 -0.026813919 -0.3068131 -0.37020355 0.047893155 -0.17899348 0.15011667 -0.1347142 0.1003023 0.3972812 0.42865947 -0.5011872 0.45435858 -0.31193122 0.5158729 -0.121083975 0.5652848 0.31494614 -0.35716602 -0.050542273 -0.19116673
95 -1.1450689 -0.22778076 0.43184265 -0.048720874 -0.10875676 -0.13514526 0.25552207 -0.0253767 -0.23993255 0.14062183 -0.21574937 0.120278545 -0.09914572 -0.04620978 -0.09679494 -0.089898415 -0.09057501 0.18087246 0.72300035 0.52489215 0.58651894 0.14439191 -0.37711823 -0.11631968 0.09562976 0.17158909 0.15656339 0.4302823 -0.046901405 0.0987467 -0.13977107 -0.63039917 -0.08123005 -0.03077697 -0.6470188 -0.9018842 -0.24515449 0.33016834 -0.28920594 0.26954696 -0.08137249 -0.29313737 -0.26004478 -0.31892538 -0.15644331 -0.008739432 -0.23508963 0.6741489 -0.79784304 0.3588253 -0.20438994 -0.154309 -0.3474676 -0.038208004 -0.523128 -0.48335192 0.23166412 0.15038568 -0.033641208 0.32841885 0.130149 -0.5905388 0.58179235 0.14885366
47 0.47735694 0.07298123 0.054171044 -0.75733113 0.016748054 -0.39000702 -0.20560761 0.521481 0.12788336 -0.09295877 0.07597467 -0.65953237 0.60318613 0.09907617 -0.37131 -0.623633 0.5318989 0.27073073 0.20671968 -0.025175715 0.8580405 -0.13773894 0.39013183 -0.0033366133 0.18579721 0.5814472 -0.014518222 0.3047801 -0.0751623 0.17290564 0.32425174 -0.6400347 0.31625718 0.3340827 -0.36457357 -0.3895201 -0.44859248 0.31116423 0.47788364 -0.27932656 0.19482626 0.048345882 -0.3804553 -0.7819143 -0.20794798 0.22755209 -0.005713925 -0.49712202 0.6475711 -0.115175225 0.021887952 0.3037708 0.38941833 0.33964434 0.4951527 -0.44468367 -0.10410317 -0.12278427 -0.45235294 0.11638074 -0.45792663 -0.71043676 0.13872859 -0.14765666
21 0.54141647 -0.035988025 -0.28877065 0.15932614 -0.78501534 -0.8559541 0.3547309 -0.3557045 0.08999106 0.19215858 -0.2000366 -0.50179017 0.20243897 0.28385574 0.13950878 0.5243588 -0.19262679 0.30284142 0.35436046 0.38843295 -0.16771106 -0.27378243 0.05055335 -0.6317255 0.31643313 0.31104946 0.37850568 0.19148558 0.03220359 0.70131224 0.52793264 0.087323405 -0.87266773 0.04914876 -0.53969646 -0.13309662 -0.6104079 -0.3380135 -0.6758781 0.6420002 0.035119247 0.2540392 0.1531122 0.058530807 -0.3064218 -0.12427768 0.24768518 -0.57365555 -0.25273037 -0.025698949 0.61674476 -0.08079571 -0.115617074 0.35061797 -0.26954886 0.33446884 0.094396494 0.30285925 -0.20447664 0.5301376 0.24457082 0.076540984 0.038816433 0.8429034
41 -0.07150962 -0.7362319 -0.6742009 0.76247996 0.40879238 -0.3798952 0.25006777 -0.3603379 -0.3254845 -0.10008831 0.5296448 -0.31440797 0.38490936 0.01561895 -0.05511187 -0.0065678474 -0.6513562 0.7287853 -0.11963123 0.1705405 0.69585556 -0.1427599 0.06679364 -0.36643547 -0.2510976 0.0797756 0.3846511 -0.31508645 0.076616965 -0.30710566 -0.13708754 -0.35258228 0.12879461 -0.02968141 -0.106204666 -0.114166744 0.89641345 -0.46524334 -0.019515673 0.44744146 0.0516017 0.26982906 0.6869037 -0.5360663 -0.22923847 0.08733325 0.07168122 0.20605125 0.20820807 0.5963853 0.47777542 0.48932266 0.19982962 -0.108529076 -0.47923398 -0.18125717 0.49735418 0.3609963 -0.081102595 -0.28490415 -0.19429657 -0.26580298 -0.123349726 -0.058835294
48 -0.31243664 0.2662937 0.2962559 0.19395705 -0.34017646 0.23035513 -0.18757834 -0.35635996 0.10180593 0.019155994 0.10852738 0.08762119 0.4940858 -0.23956387 0.13404472 0.19299759 0.78744245 0.231717 -0.24917057 0.051948357 -0.14208487 -0.013925851 0.17188546 -0.87078685 0.08208117 0.22121704 -0.5614233 0.08829103 0.74675876 -0.14527503 0.061263468 0.12642007 -0.20058464 -0.34784603 0.17764863 0.014453455 -0.8292708 0.32669035 0.26889512 -0.47512195 0.32010457 -0.07212821 -0.44785467 -0.1841575 0.14322759 -0.050108474 -0.15226492 0.5353292 0.5776957 -0.090975106 0.13959137 0.54762834 -0.54120374 0.55528843 0.5867835 0.2796997 -0.217019 -0.32758054 0.037208874 -0.006752669 0.43827736 0.1342886 0.5380589 1.2264034
5 -0.3749204 0.8494542 -0.30182898 0.12334596 0.047594894 0.4890881 -0.0911792 0.36274943 -0.943763 -0.097204626 -0.08911165 -0.39810207 0.049832504 -0.70428985 -0.2766688 0.7547041 0.25657865 -0.37942776 -0.42876804 -0.2814966 -0.27864596 0.056991603 0.06527533 -0.6210899 -0.4908513 -0.69730675 -0.30271697 -0.22749196 -0.37520894 0.086568356 -0.028642086 -0.43195662 0.4068127 -0.053378724 0.31102738 0.24416503 0.4801293 0.13078028 -0.60799766 -0.40997776 0.22976314 0.24732912 -0.11853245 0.23225851 -0.083204575 -0.27586058 -0.46904385 0.43402037 0.43815482 -0.20980707 -0.6123425 -0.5524949 0.64512336 0.33673775 0.40532568 0.09736013 -0.1404757 -0.35078296 0.24451911 -0.07710796 -0.41904816 0.3956841 0.47725147 -0.32967484
89 0.17391261 -0.21984841 -0.5718843 0.24686052 -0.09760994 -0.5224427 -0.11938088 0.6243794 -0.50789726 -0.24174455 0.41678056 -0.0038161913 0.91706127 -0.057393245 -0.32457224 -0.17919087 -0.5193338 -0.22811216 -0.7956242 -0.13360843 -0.120589815 0.3024308 0.4768172 -0.2393728 -0.12940718 0.112108976 -0.03227049 -0.25109765 -0.5585145 -0.1002619 0.07347605 0.3654769 -0.63593817 -0.75193524 -0.4190963 -0.2351552 0.7731954 -0.59506553 -0.33853847 0.618049 0.6481226 0.14313322 0.7313435 -0.28030774 -0.03149327 -0.22187707 -0.1172228 0.8617112 -0.17751959 -0.14727393 0.26252085 -0.000617763 -0.28878635 0.100958854 0.21885969 -0.076117575 -0.0055613723 -0.19036907 0.04459774 0.9213614 0.22349343 -0.052675053 0.27837723 0.039234754
9 0.038821213 0.29933253 -0.54584616 0.5581368 -0.031601835 0.9695584 -1.0466753 -0.36521393 0.09883901 1.0221525 0.07737377 0.21280265 0.5364437 0.55043703 0.42575768 -0.19950692 -0.47923258 0.25442702 -0.1894138 -0.15648015 0.5162664 0.017615648 0.20953539 0.044174418 0.35910144 0.85395914 0.049515128 0.42720652 0.36817214 0.39076167 0.121427536 -0.0930316 0.011952446 -0.9657625 -0.08363142 -0.2500701 -0.30268425 0.22540711 0.31421918 0.53603685 0.43971404 0.20794475 0.53810394 0.8896089 -0.16361043 0.3051519 -0.19916002 -0.12023131 0.07831573 0.029569047 0.2920342 -0.35645837 -0.24211828 0.40536755 0.24383214 0.14342006 0.4117254 -0.17859031 0.16518977 0.23939013 0.267364 0.3897305 0.037639618 -0.10198152
34 -0.85350406 0.2801782 -0.33636668 0.17256051 0.5089237 0.33834833 0.08644441 0.39720646 0.01273899 0.014252066 0.3598499 -0.006064638 0.37021545 0.5260726 0.37047163 0.22258306 -0.1833076 0.015866172 -0.037638795 0.2689768 0.423303 0.39249855 0.6049198 0.40311515 -0.24125627 0.5014622 -0.1205565 -0.2122709 -0.6411723 -0.13004242 0.40134123 -1.0891049 0.120334126 0.3254704 -0.7700781 0.29358777 0.102410056 0.26078048 -0.36826944 -0.6586785 -0.35516655 -0.20299603 -0.23128758 -0.18743715 0.089112006 -0.39266145 0.16773742 0.287382 -0.1997415 0.29464653 0.3159834 -0.40518722 0.63940066 -0.31861585 0.2465209 0.110684045 -0.014522526 -0.4665576 -0.52987033 0.464902 -0.4390733 -0.34745732 -0.33526883 0.1574724
64 0.2588882 0.4938097 0.5047061 -0.46795613 -0.5265002 0.47141024 0.18509349 0.13210751 -0.08774274 -0.668726 -0.36049247 -0.04140132 0.29422277 -0.18777668 -0.21715963 0.021735972 -0.44770536 -0.1423603 0.065023504 0.045743894 0.5632481 -0.016723983 -0.25995377 0.5892903 0.7805897 -0.12146818 0.6576959 -0.20307277 0.23350635 0.4346772 -0.14009869 -0.2697094 0.015269502 0.52995753 -1.0491492 -0.0979043 -0.19664505 0.22299828 -0.19167575 -0.155573 0.20052032 -0.11537442 0.65248686 0.43233097 0.03995236 -0.6583785 -0.08126776 0.11525498 -0.4686821 -0.40797198 0.41314206 -0.6946339 0.33546734 0.81558037 -0.3780509 -0.45591363 -0.22008091 -0.53953457 0.069946796 0.116110645 0.29611236 0.29266295 0.202732 0.25492942
59 0.33915743 0.3283446 -0.16113931 0.39084306 -0.2003493 0.21053629 0.4768242 0.045096762 -0.014605086 0.12617406 -0.5488766 0.013712614 0.36823592 0.34539506 0.07694003 0.7143843 -0.030141957 0.02984818 0.39196205 -0.25657293 0.31621215 0.43979886 0.103414424 -0.40009093 -0.0066101495 -0.35187954 0.5249073 0.051096812 0.5588024 0.5771757 0.039560683 -0.88983303 -0.38994482 -0.3263436 -0.12345111 0.7905294 0.57197464 -0.17048617 -0.20981544 -0.09603639 -0.46493688 -0.7025739 -0.1048886 0.34656522 0.27626404 0.020772407 0.19720346 0.27593678 0.06863227 -0.114794984 0.870025 0.19437248 0.161612 0.6801339 0.11980591 0.3301089 -0.082690015 -0.5525891 -0.1706704 -0.40350667 -0.9154448 -0.28645247 -0.23089038 -0.3050111
83 0.2016377 0.30112395 0.43664762 0.16594917 0.485371 -0.10791975 -0.26069957 -0.68791884 0.3858773 -0.3710027 0.13876335 -0.2917634 -0.24672656 0.509703 0.6379601 0.049189378 -0.19999407 0.1628358 -0.015075363 0.060411695 -0.4555831 0.10893242 -0.75993896 -0.2650343 -0.037116624 -1.0537072 0.4286942 -0.09901315 -0.25536793 0.32809272 -0.37499318 0.22315307 0.076098606 0.5357393 -0.10560505 -0.46530133 0.1648259 0.82388043 0.0029342119 0.11255183 0.3167585 0.23520622 0.24786592 0.35200062 0.015521792 -0.3087175 -0.33141413 -0.8043753 0.2587724 0.034916382 -0.54512346 0.02311768 0.2830526 0.39891058 0.5419981 0.18176587 -0.01718435 -0.2571457 1.1191772 0.35946023 0.3922563 0.092741884 0.061207097 -0.373115
67 -0.15832296 0.06545888 0.45731845 -0.09317162 0.6939864 0.29051074 -0.07990423 -0.16819221 -0.16587077 -0.06182054 -0.22144963 -0.37743697 0.5275694 -0.15206997 0.12700504 0.08567619 0.5249686 0.34738857 0.017251354 -0.25738287 -0.07763144 0.17310414 -0.23700273 0.54544336 -0.34750715 -0.03221951 -0.24316965 -0.4817933 -0.35354194 0.3697226 0.24813542 -0.35761887 -0.43043005 -0.23260202 -0.68553 0.12725335 -0.7241893 0.7632598 -0.3264512 -0.17489739 0.61629426 0.6229822 -0.075871244 0.47523722 -0.26832893 0.7759448 0.2609399 0.11865152 0.07582978 -0.047792446 0.53971 -0.9974884 0.13712797 -0.2647379 0.010937019 -0.20983079 0.6242931 -0.39532387 -0.19761588 0.26127994 0.4300632 -0.066980615 0.553898 -0.22175065
36 -0.66231805 0.38790646 -0.04750839 0.007952097 0.17815617 -0.6323088 -0.5078891 0.49782845 0.2758713 0.57972217 0.2940574 -0.3889907 0.16306092 -0.43663514 0.78192824 -0.023189059 0.22284827 -0.6237571 0.033152986 -0.0012234022 0.65368015 -0.6961701 -0.03320415 -0.27372926 -0.14562492 0.09970723 0.32015827 -0.16250889 -0.924416 -0.39989856 -0.58236575 0.31918165 0.063247345 -0.26689988 -0.014657097 0.42319414 -0.035291687 -0.26179302 -0.26886615 -0.7435555 0.14182474 0.26081407 -0.51922345 -0.6757852 0.60367477 -0.3874237 0.037731063 0.07093719 -0.21606685 -0.08693207 0.04736908 -0.628675 -0.2289873 -0.19866791 0.21237738 -0.2632834 0.13551854 -0.15479636 0.3606439 0.44521987 0.078798026 0.8860016 0.07471846 0.2961134
17 -0.023595523 0.99307215 -0.23541346 0.17387591 -0.29833654 0.2229397 -0.27587894 -0.18364601 0.020719241 -0.022009738 -0.6453721 0.040586784 -0.0034676613 0.4273528 -0.4197979 0.6757588 0.41641864 -0.2646759 -0.5839235 0.22298211 -0.073953755 -0.9943215 0.2269866 0.13006838 -0.00622704 0.7052057 0.75984704 0.31187925 0.052908134 -0.026993025 0.32423806 0.11928397 0.025847157 -0.11136735 -1.0657794 -0.63423187 -0.72748667 -0.02061139 -0.2012938 -0.52581745 0.3905396 0.2470635 -0.54960924 -0.50110894 0.82082325 0.19931169 0.21452984 -0.15928575 0.13532265 -0.12878577 -0.25629872 -0.07445721 0.40903223 0.9781221 0.041180093 0.35706282 -0.18783453 -0.6919176 -0.054673467 0.09892515 -0.36526427 -0.031632233 -0.13083547 0.74508965
19 0.04616139 0.3935423 -0.051388912 -0.27469465 -0.212133 -0.15028562 -0.12303935 0.59762865 0.0148214325 0.08652837 0.22166467 -0.24077572 -0.25006753 0.33990663 0.24100566 -0.30700216 0.39711896 0.0016245379 0.4931408 -0.17678781 0.23498057 -0.16876853 0.08139552 -0.271293 0.618027 -0.75688916 0.36135784 -0.10904686 0.052812263 0.9038774 0.41184527 0.251306 0.38591626 -0.16436265 -0.2763169 -0.291788 0.10034489 -0.15712097 0.38799828 0.30511916 0.23415741 -0.88303655 -0.50723755 -0.35719976 -0.129444 0.7996873 0.00080808904 -0.23318882 0.30870312 -0.28623635 0.84879327 -0.7977296 -1.0024959 0.04818408 -0.12665516 -0.5367365 -0.31163067 0.084047996 -0.17512909 0.016586645 -0.015214466 0.27312964 0.8110287 0.09002306
58 0.10218224 -0.23553586 -0.0009328239 1.1253723 0.71002656 -0.16968928 0.04168652 -0.5469643 -0.069138736 0.5148646 0.09880257 -0.13172178 0.22861743 0.2062936 0.0650441 0.22644262 0.53725666 -0.41286334 -0.4317387 -0.37400433 0.057325527 -0.3065115 -0.117615454 0.2082261 -0.7617553 0.7041762 -0.0040798187 -0.59862393 0.16884403 -0.44112158 0.035500586 -0.29354554 -0.15463261 0.28054136 0.020464223 0.6440834 -1.2990315 -0.2986517 -0.698702 0.04751441 0.5455246 -0.4340597 0.5208345 0.43325862 0.22389165 -0.14871913 -0.009587507 0.52627456 -0.5283182 0.3720328 0.31041348 -0.15625426 0.4270596 0.225834 0.42990816 -0.1253861 0.10871277 -0.05323711 -0.07095665 0.39998335 -0.13161987 0.50372165 0.17738591 0.09679743
81 0.22610159 -0.272926 0.15919732 -0.34446883 0.42909274 0.6333592 0.12267703 0.19417377 -0.4141532 0.23115115 0.43481702 0.5166293 -0.31556857 0.14989641 0.7093114 0.49723902 0.48215598 0.083073676 0.4794379 0.3098725 0.39201343 0.14310718 0.15456486 -0.2846826 0.3461675 0.4623204 -0.105935596 -0.029357934 0.07293562 -0.33033487 -0.91028607 -0.23256664 0.40924302 -0.17385064 -0.13489284 -0.69390106 -0.18486421 0.43263313 -0.6792132 0.63956827 0.16360675 -0.073845245 0.32435435 -0.26504958 0.2852167 -0.18169007 -0.49160162 -0.023553398 -0.18656981 -0.09658306 -0.055718224 0.072214216 -0.2738592 -0.4714943 -0.32183358 0.39826736 -0.6071513 -0.06257267 0.49878252 0.37927708 1.1345017 -0.04439085 -0.3524749 0.6328911
14 -1.2598641 0.6554854 -0.084271535 0.11438224 0.24017437 -0.25383598 -0.45651543 -0.7513085 -0.22116713 -0.19718991 0.3907412 -0.5435476 -0.009225534 0.30768412 0.030993868 0.2938575 0.48981768 -0.1880266 -0.016710123 0.08023978 0.43086082 -0.053384896 -0.14454907 -0.9179867 0.45867822 0.5549965 0.19791494 -0.9323232 0.2653084 0.095129594 0.39140692 -0.24978317 -0.100669816 0.03857963 0.19527951 0.8833891 -0.014924463 -0.077228025 -0.14738747 -0.48647708 -0.45094025 0.14473198 -0.11774294 -0.06532677 -0.3078051 -0.05475322 -0.18729697 0.64723545 -0.02837865 -0.40008122 0.104810715 0.16193682 -0.63360244 -0.05624849 0.3851386 -0.3414715 -0.047239576 -0.13091198 0.053804874 -0.289458 0.04063353 0.11263211 0.15347415 0.3272799
29 0.119465455 0.90743583 0.12650074 0.056944188 0.2850889 -0.36593848 -0.5546647 0.011499293 -0.22350588 -0.17312737 -0.23643191 -0.78762233 0.5876687 0.022516627 -0.46090254 0.057815697 0.21735124 0.059248302 0.04699804 -0.5317596 0.45720845 -0.030018687 -0.08031195 0.7841682 -0.57866746 -0.089367256 0.38748658 -0.3456485 -1.0357052 -0.17253442 0.13695347 0.24853675 0.3303399 0.2528045 -0.77541727 0.33862612 -0.6213141 0.0836988 -0.57153475 0.027817119 -0.33644408 0.124694265 0.040995568 0.3833329 0.34606695 0.53805476 0.3841539 -0.28849468 0.034772545 0.026714524 0.97165394 -0.22136138 0.23247102 0.72245014 -0.2672827 -0.23814586 0.47796068 -0.3253521 -0.20442697 -0.39979264 -0.8995443 0.36631852 0.15209202 0.567034
39 -0.16696334 -0.27127346 0.155334 0.26098725 0.89421403 -0.27403077 0.057363775 0.14233387 0.08624568 0.39898083 0.18249951 0.085251674 -0.1480871 0.15552591 0.4769081 -0.2483195 -0.57075983 0.30568814 0.5922694 0.48360148 0.21334317 0.6204216 -0.33930507 -0.10920817 -0.085168354 0.09176513 0.27931488 -0.78142524 -0.5135757 0.48971173 -0.17434908 0.43344218 -0.5926293 0.30716592 -0.35060826 -0.0122943185 0.9937675 0.5113759 -0.101139374 0.18037793 0.1702037 0.10870473 0.91645175 0.5901097 -0.5430333 -0.6140607 -0.11726498 -0.014342383 0.07029222 -0.26093948 -0.06757653 -0.6280931 -0.4341181 0.29448095 0.5458188 0.109206356 -0.77793574 0.15127018 0.23155388 0.58105856 0.36790338 0.5678326 0.096847065 -0.39429379
42 -0.34253114 0.44644654 -0.27597064 0.5145547 -0.5443316 -0.023511928 -0.13646373 0.28709176 0.19443072 0.56362647 -0.004435187 -0.025997315 -0.7483227 -0.35789958 -0.35655034 0.013080119 -0.35233673 0.3762676 -0.057691056 -0.21922606 -0.2952681 -0.09997608 0.3434435 -0.702195 0.5007514 -0.63351685 0.4368152 -0.17679378 0.4802247 0.41014403 0.13252543 -0.12418525 0.07195588 0.18663418 -0.33619136 -0.14815608 0.3794303 -0.286504 0.25819016 -0.72502273 0.570497 -0.38430166 -0.37609857 -0.5817542 -0.39253587 -0.14999788 -0.13341875 0.009517106 0.6520559 0.40784585 -0.35098168 -0.18202896 0.019905861 0.15785652 0.81546503 0.101918146 -0.44326055 -0.05981593 0.39812768 0.17516361 -0.19031999 0.2505121 0.4351265 0.1864706
79 -0.70037264 0.02519428 0.009477444 0.8806416 0.26767343 0.08042147 0.0028244588 0.04076056 -0.31042966 -0.5270956 0.045263942 0.23251341 0.04695801 -0.4401255 -0.31802478 0.06646919 -0.23593728 -0.006015006 0.69389176 -0.0058913515 0.8039442 -0.2233972 -0.15772367 0.102175884 0.25774595 -0.03482343 0.6020645 -0.47555336 0.48108447 0.04563077 -0.43307805 -0.19265103 0.17881234 -0.069488265 -0.30881938 -0.8 0.44439906 -0.44246083 0.47325003 -0.29902592 -0.03635459 0.41288152 0.28947192 0.013944771 0.58573866 -0.34576043 -0.6331704 0.8355148 -0.29942375 0.20862919 -0.63620555 0.3640221 0.28956535 0.011209786 -0.7043948 0.1478779 -0.20540711 0.07392598 0.21055675 0.12439326 0.11784694 0.5604502 -0.2518575 -0.31610954
30 0.19409451 0.43629983 -0.21978858 0.40311572 -0.38229778 0.13711385 0.051434882 0.100683615 0.0925665 -0.097250834 0.35119748 0.13374604 0.8558972 -0.5461376 -0.5807391 0.67793757 -0.10624547 -0.052724797 -0.05806111 0.5492973 0.18168628 0.13376233 0.6619384 -0.8809737 0.31148323 0.29746082 0.6405984 -0.33050674 0.4038214 -0.14585103 0.29095706 -0.89363015 0.5122503 -0.2419892 -0.04583461 -0.013323741 0.63070756 -0.23203643 0.09165364 -0.27434045 0.091063686 0.01658605 0.018068846 -1.1147382 -0.27341685 0.16481361 -0.14138053 -0.043649547 0.046985842 -0.6873864 0.46733832 0.05763033 -0.5594333 0.05832354 0.3153253 -0.30744433 0.5740328 -0.22001089 -0.40340453 0.45612618 0.3371919 0.2520576 -0.6896962 -0.3928138
6 0.18279241 -0.12415675 0.34068242 0.016086616 -0.3842278 -0.2792584 -0.16085596 0.48772028 0.08457236 0.47060156 -0.4024009 -0.7526927 0.042049117 -0.2161882 0.15385313 0.44451475 -0.0035193497 0.21316272 0.6492858 -0.060462803 -0.02820021 0.106670484 1.0831124 0.78032833 0.3298463 0.6428998 0.28531992 -0.33017594 -0.2980931 0.09992872 -0.46540165 -0.07623152 -0.34216288 0.44159034 -0.56720364 -0.8972993 -0.12767456 0.40820912 -0.5547703 -0.03183437 -0.29275754 0.73492604 0.5517201 -0.2547607 -0.08952266 -0.38289922 0.44265497 -0.026182568 -0.25590205 -0.6549633 -0.016723003 -0.20868792 0.5516192 0.2814546 0.1990362 -0.25469118 -0.4945939 0.026326215 -0.29903594 0.14485979 0.16117811 0.20841518 0.09276571 0.42988986
32 0.56512856 -0.17988038 -0.3076573 -0.120199434 0.34090465 0.5225736 -0.1327115 0.46262246 -0.5786863 -0.57571805 -0.47707155 0.25438154 -0.026897836 0.74688154 0.32868776 0.5182337 0.32680756 0.69811016 -0.11561261 0.37170014 0.42577028 -0.4151102 0.27657592 -0.7425011 -0.22303045 0.3505764 0.05189484 0.03601459 0.18610163 0.37588108 -0.5172314 -0.86812955 -0.15455778 0.2902493 0.27686474 -0.17609496 -0.34775952 0.58418524 0.80489236 -0.09456001 0.4848061 -0.046374146 -0.69890684 -0.28570348 -0.050997052 0.16657054 0.100246675 -0.7450423 0.4051548 -0.7250635 0.104852326 0.107054956 -0.028049512 -0.13784806 0.013888493 0.012032245 -0.0949092 -0.25094056 0.55861217 0.26512322 -0.25674295 -0.51290005 0.6428602 0.32470688
11 0.21528038 -0.28202692 -0.12912509 -0.0582584 0.24828468 0.9385045 -0.13336785 0.27029884 -0.30543786 0.060848273 0.17182584 0.509054 -0.1746825 -0.72042274 -0.31302083 -0.09461017 -0.04272474 -0.32616156 0.043160744 -0.24564566 -0.09589174 -0.5171009 0.7860067 0.84779406 -0.39686322 0.42778975 -0.47133857 -0.7957958 0.22409648 -0.23863138 -0.3059799 -0.52827257 0.3713236 -0.06920228 -0.6507056 -0.66850966 -0.19369905 0.27198303 -0.46507692 -0.3442521 0.24775457 0.065637395 0.027341375 -0.15179439 0.30572438 -0.3856765 0.17961545 -0.13928235 0.26471803 0.24855107 0.17955062 0.008888951 0.34812126 0.27745622 0.032212634 -0.39951473 -0.0036604195 -0.30344248 0.02450663 1.0527016 0.08148371 1.0722685 -0.078418486 0.14807697
43 -0.46079552 0.031879287 0.026053809 -0.50574595 0.43210346 0.30675924 0.11650594 0.5735387 -0.93779534 -0.6333412 0.037277825 0.2528719 0.07091637 -0.18856227 -0.59002334 -0.7074385 0.09096974 -0.11847916 0.08228683 0.17041539 0.09914738 -0.24239832 -0.20612124 -0.10314595 -0.5838039 -0.4006002 -0.57901925 -1.0471069 0.4745489 0.6763263 0.1257126 -0.0145956315 -0.11341946 -0.4621084 -0.19410463 -0.39761445 0.8587823 0.76312846 -0.48398265 0.78213143 0.03900113 0.42750344 -0.15676904 0.16448654 -0.27882233 0.5520256 0.039057493 -0.37577435 0.55683583 -0.016345734 -0.19404793 -0.16188999 -0.82972884 0.45413288 -0.35676083 0.10521757 0.3640381 -0.44834146 0.41922 0.4254604 0.576458 -0.33356315 0.6759263 0.0034811269
26 -0.72073597 0.18902399 0.49615538 0.41038084 -0.27013516 0.30830187 0.07109458 0.27015963 -0.30079722 1.0955445 -0.3991461 0.3860073 0.030275736 -0.318168 -0.277185 0.24428715 0.42251644 0.41026917 -0.066856496 -0.035482902 0.05917024 0.28868505 0.19449131 0.28228712 -0.24799517 -0.14491272 0.63237137 -0.5011539 -0.04429306 -0.39146075 -0.52774745 0.553121 0.22086683 -0.8360116 -0.13219433 -0.38367116 0.296343 0.3878837 -0.2419793 0.29209387 0.10701984 -0.27903545 -0.38160926 -0.73456776 -0.40396908 0.09058703 -0.10755145 0.5623971 0.40265715 0.2703615 0.63990104 -0.30783817 -0.45732915 0.5463169 -0.45187116 -0.29594904 -0.39413363 -0.13921396 0.18087977 0.047737982 -0.14672428 -0.5581134 1.0954859 0.05409623
16 -0.40361023 0.1857559 0.3408625 0.36426628 0.78742546 0.17525312 -0.15670536 0.40218168 -0.044330556 -0.6458709 -0.17562808 -0.018222822 0.9222093 0.41142684 0.25648674 -0.15282367 0.021666259 0.3357362 0.72793025 0.18381403 -0.69447345 0.88630736 0.48075584 -0.32794112 0.038540736 0.24428649 -0.12029182 -0.62264043 1.0428593 0.67598116 0.43361792 -0.13115256 -0.26181024 -0.4563108 -0.2813008 -0.96838945 0.8411697 0.019843992 0.06297108 -0.042211298 -0.6385171 0.20139363 -0.04931885 0.2470191 0.5402076 0.19259164 0.36648005 -0.17013569 0.38660467 0.06305537 0.063702695 0.05192336 -0.5941344 -0.4091602 0.058328234 0.35701695 0.26062384 -0.121941544 -0.60545075 0.41518185 0.7468817 0.6866633 0.32598737 0.25757998
75 -0.25667644 0.71932745 -0.007797048 -0.5684855 -0.41076693 0.2909824 -0.86035365 0.5026913 0.07634791 0.5899394 -0.45579427 -0.23389044 0.25408635 -0.92678136 -0.4421599 -0.45928106 -0.37140593 0.68454254 0.48482427 -0.98805577 0.5224414 0.68940306 0.17550099 0.4884922 0.7650507 -0.12677355 0.04457006 0.022334086 -0.4722582 0.20986162 0.14994939 -0.39697286 -0.3464095 -0.50182784 -0.37226656 -0.03506382 0.08491483 -0.020908797 0.22234908 -0.23966521 0.52429116 0.06311713 -0.10982348 -0.14602785 0.0013447374 0.17621857 -0.018742068 0.65178996 0.05907395 0.741287 0.23371053 -0.0052651837 0.8096134 -0.48594612 0.98363423 -0.37358442 0.36975765 0.0750988 0.53156495 0.26241398 -0.15906912 -0.09802378 0.120382294 0.091175005
1 0.6483175 0.218728 0.29489234 0.30183953 -0.3200846 -1.3638935 0.6406439 0.024748415 -0.02578579 0.41141805 0.08060257 -0.714951 0.33981565 -0.36950967 -0.05430706 0.3712081 0.5564457 0.1502046 0.3391325 -1.143494 -0.60128546 0.32651395 0.23024307 -0.16302752 -0.41259673 -0.8002136 0.5769076 -0.38667306 0.016108423 -0.29086435 0.15022315 0.08211141 -0.59216386 -0.8382153 0.58765364 0.2934879 0.2685517 -0.397769 -0.30889952 0.5656587 -0.08804502 0.022037338 -0.37201244 -0.17077278 -0.5423485 -0.4317119 -0.5313497 0.18280043 0.70469415 0.14051647 0.16916248 0.0981327 0.5824992 0.35541144 -0.37996727 0.106635265 -0.37277246 0.6229203 0.7091728 0.5296934 -0.37827536 0.11531243 0.65331393 -0.4222441
3 -0.013798182 -0.6388548 0.34218457 -0.11931712 -0.39107835 -0.31696835 0.31708816 0.18892643 0.3447156 0.15857098 0.123709165 0.0023382795 0.022987187 -0.595107 -0.1144771 0.5319886 -0.69480705 0.18351464 0.014809489 0.012718998 0.707351 0.22493905 0.8169014 -0.072565794 -0.2395247 -1.0075275 -0.2182659 -0.38717002 0.7023369 -0.19059776 -0.8147094 -1.3876474 -0.60287255 0.4448638 -0.7497235 -0.14260407 -0.16196741 0.19341062 -0.2833387 -0.26381603 -0.057570577 0.2507709 -0.2500124 -0.6503799 -0.0054059015 -0.35971063 -0.051458586 -0.049042556 -0.3510761 0.25291723 -0.09943594 0.27466476 -0.18469033 0.32565197 0.15285026 -0.23367953 0.742363 0.34500706 0.5621685 -0.052072644 0.40831518 -0.30940408 -0.24453907 -0.4971724
51 -0.42472678 -0.73049635 -0.6781046 -0.056789193 -0.5309701 -0.28533876 0.56914634 0.93999183 -0.3890338 0.18395607 -0.28071865 -0.89743394 -0.30411988 0.04755476 0.7174705 0.14443551 0.7448311 -0.28368554 0.73835266 0.0145829 0.49231204 -0.12862387 0.7528317 0.2680897 -0.076563194 0.4820195 0.42481545 -0.7804275 -0.015483015 0.10079578 -0.5378892 -0.59008807 -0.60725814 -0.17788449 0.19328408 0.34412384 0.13778594 0.686015 0.35083005 -0.3317182 -0.5329663 0.653321 -0.46886575 -0.15255094 -0.022971047 0.25661913 0.17985336 0.89517295 -0.1555005 -0.31491494 -0.108794965 0.049682572 0.6219072 -0.19414161 0.23799025 0.31137845 -1.3659502 -0.34131593 -0.15375379 0.21766287 -0.2899352 -0.6065858 -0.06296593 0.40523592
80 0.4173868 -0.7569386 0.06515724 0.6388379 -0.36438987 0.22169507 0.5863035 -0.25492454 -0.045108523 0.35139313 0.110684834 -0.10782536 0.9430252 -0.5117734 0.64629483 -0.19304329 -0.0012904301 0.21437903 0.28550583 0.28213653 -0.52425414 -0.45639244 -0.49964604 -0.31802657 0.052982967 -0.080283515 0.4051073 0.4084936 0.07029014 -0.0406005 -0.7102043 -0.12442624 0.2914332 -0.3491788 1.1438332 -1.0387481 0.10182895 -0.0049701123 0.50394064 0.61254084 0.6252162 0.28659418 -0.11780042 -0.9074239 -0.16709809 -0.30820706 -0.09204673 -0.47472394 0.7813182 0.15384164 0.96538407 0.38800436 0.21874562 0.5157048 -0.3991193 -0.2494893 0.19363022 0.45564905 0.39926463 0.81990975 0.5966814 -0.06839365 0.2679291 0.18818536
